4.962151532743703797e-01 -6.565450563557959640e-01 1.603299030813962744e-01 -8.955014547179018791e-02 8.955014547177242434e-02 1.006201906964037107e-01 1.568898354943115692e-02 -1.163091742458366440e-01 1.154064990112075861e+00 -2.507072174298841105e-01 -8.728895571974710776e-01 -3.046821548476508212e-02 -2.107488228850087353e-01 1.046321777448220303e-01 1.857681337526031484e-01 1.751851008402134369e-01 -2.548365894526334330e-01 -2.721233706703998223e-01 -9.002389674687094612e-02 3.621472674172530049e-01 9.875967802086549341e-02 -9.875967802089036240e-02 5.062755420839835097e-01 -8.939591133423370195e-01 3.876835712583215354e-01 1.127630809728187966e+00 2.221758675608433986e-01 1.296097330922451052e-01 -3.171372891679364869e-01 -6.474938853311351661e-02 1.155315406512546605e+00 1.725855961506839176e-02 1.671484580552690780e+00 -9.706815443719279957e-02 -4.777300753245283804e-01 6.680442457158435321e-01 3.267870530999071876e-01 -1.993462079993157943e-02 1.024319711013028211e+00 1.237994193296245049e+00 3.730281673885320615e-01 1.163254113988984595e-02 1.146375989884121926e+00 -3.400039817836526534e-01 6.170581279749006720e-01 9.644132542070450453e-01 3.308861327472168989e-01 2.440455941092251058e-01 7.504466755598133698e-01 1.816847392671982142e+00 7.420236181556996158e-01 2.018209498161807613e-01 -1.308724459142687757e-01 -7.708384313395606480e-01 -8.835541954059844549e-02 -4.841770016826669742e-01 -5.213265272940794670e-01 -1.426279633476995601e-02 6.635062508161636563e-01 -1.118438772779969392e-01 5.983023348066710545e-01 -8.783341088693650267e-01 5.059155130883008500e-01 -1.203726523697953299e-01 8.219137470239445964e-02 -6.707160863104022486e-02 4.054073665899726731e-01
