2.313813607524469962e+00
1.183163623117335028e+00
2.047331948459645723e+00
2.688575802977661855e+00
2.855733376123791079e+00
1.987189611402277123e+00
1.890282054065935746e+00
1.666837513633120826e+00
2.529314855029879183e+00
1.161136106465880502e+00
5.101907006136943146e-01
1.343667516992007815e+00
9.055955458733477847e-01
1.221592661125846746e+00
1.304398735031157441e+00
1.284081000020864893e+00
8.286412370502672653e-01
1.567354120170732168e+00
1.781616849612133402e+00
2.195338209318688616e+00
2.888290862071012821e+00
2.656018317030296227e+00
2.392257242809820550e+00
9.112690661316177332e-01
2.240782870159931051e+00
1.123634818358558496e+00
2.161664733066399335e-01
1.368318218495478966e-01
-3.078563423953820100e-01
-6.726041432381817120e-02
1.158488928579512134e+00
3.775360486349833150e-02
1.672335310137547992e+00
-1.070425669241877736e-01
-4.917812308622870887e-01
6.659832087750670038e-01
3.234953938428952736e-01
-1.289774525693161006e-02
1.029793196029091362e+00
1.234496517887741174e+00
3.836146338636965414e-01
5.577928859287688973e-03
1.169062675658384176e+00
-3.300308802286971988e-01
6.159619315887604474e-01
9.351135159518307871e-01
3.371537735475113040e-01
2.526249984350447120e-01
7.464452861514255799e-01
1.818315872429496549e+00
7.262220438866536787e-01
1.990361185028161062e-01
-1.089295021265718894e-01
-7.958178471891010908e-01
-8.930491146324509577e-02
-4.736088140890764020e-01
-5.091660936761337464e-01
-1.458200694889503872e-02
6.538379059081796951e-01
-1.116475391284445368e-01
5.996465554264265307e-01
-8.727642745112617062e-01
5.189988615533547289e-01
-1.256003149449028689e-01
9.190661488390337863e-02
-7.902147038851121963e-02
4.028086236881057158e-01
